digraph Tree {
node [shape=box, style="filled, rounded", color="black", fontname=helvetica] ;
edge [fontname=helvetica] ;
0 [label=<ap_hi &le; 129.5<br/>gini = 0.5<br/>samples = 49000<br/>value = [24531, 24469]<br/>class = Healthy>, fillcolor="#e5813901"] ;
1 [label=<age_in_years &le; 54.5<br/>gini = 0.433<br/>samples = 28925<br/>value = [19758, 9167]<br/>class = Healthy>, fillcolor="#e5813989"] ;
0 -> 1 [labeldistance=2.5, labelangle=45, headlabel="True"] ;
2 [label=<cholesterol_3 &le; 0.5<br/>gini = 0.361<br/>samples = 17891<br/>value = [13664, 4227]<br/>class = Healthy>, fillcolor="#e58139b0"] ;
1 -> 2 ;
3 [label=<gini = 0.345<br/>samples = 17130<br/>value = [13338, 3792]<br/>class = Healthy>, fillcolor="#e58139b7"] ;
2 -> 3 ;
4 [label=<gini = 0.49<br/>samples = 761<br/>value = [326, 435]<br/>class = Ill>, fillcolor="#399de540"] ;
2 -> 4 ;
5 [label=<cholesterol_3 &le; 0.5<br/>gini = 0.495<br/>samples = 11034<br/>value = [6094, 4940]<br/>class = Healthy>, fillcolor="#e5813930"] ;
1 -> 5 ;
6 [label=<gini = 0.486<br/>samples = 9881<br/>value = [5762, 4119]<br/>class = Healthy>, fillcolor="#e5813949"] ;
5 -> 6 ;
7 [label=<gini = 0.41<br/>samples = 1153<br/>value = [332, 821]<br/>class = Ill>, fillcolor="#399de598"] ;
5 -> 7 ;
8 [label=<ap_hi &le; 138.5<br/>gini = 0.362<br/>samples = 20075<br/>value = [4773, 15302]<br/>class = Ill>, fillcolor="#399de5af"] ;
0 -> 8 [labeldistance=2.5, labelangle=-45, headlabel="False"] ;
9 [label=<cholesterol_3 &le; 0.5<br/>gini = 0.478<br/>samples = 6522<br/>value = [2580, 3942]<br/>class = Ill>, fillcolor="#399de558"] ;
8 -> 9 ;
10 [label=<gini = 0.493<br/>samples = 5258<br/>value = [2325, 2933]<br/>class = Ill>, fillcolor="#399de535"] ;
9 -> 10 ;
11 [label=<gini = 0.322<br/>samples = 1264<br/>value = [255, 1009]<br/>class = Ill>, fillcolor="#399de5bf"] ;
9 -> 11 ;
12 [label=<ap_hi &le; 149.5<br/>gini = 0.271<br/>samples = 13553<br/>value = [2193, 11360]<br/>class = Ill>, fillcolor="#399de5ce"] ;
8 -> 12 ;
13 [label=<gini = 0.301<br/>samples = 6864<br/>value = [1267, 5597]<br/>class = Ill>, fillcolor="#399de5c5"] ;
12 -> 13 ;
14 [label=<gini = 0.239<br/>samples = 6689<br/>value = [926, 5763]<br/>class = Ill>, fillcolor="#399de5d6"] ;
12 -> 14 ;
}